<?xml version="1.0"?>
<opencv_storage>
<cascade>
  <stageType>BOOST</stageType>
  <featureType>HAAR</featureType>
  <height>30</height>
  <width>30</width>
  <stageParams>
    <boostType>GAB</boostType>
    <minHitRate>9.9500000476837158e-01</minHitRate>
    <maxFalseAlarm>4.0000000596046448e-01</maxFalseAlarm>
    <weightTrimRate>9.4999998807907104e-01</weightTrimRate>
    <maxDepth>1</maxDepth>
    <maxWeakCount>100</maxWeakCount></stageParams>
  <featureParams>
    <maxCatCount>0</maxCatCount>
    <featSize>1</featSize>
    <mode>BASIC</mode></featureParams>
  <stageNum>14</stageNum>
  <stages>
    <!-- stage 0 -->
    <_>
      <maxWeakCount>3</maxWeakCount>
      <stageThreshold>-1.1571774482727051e+00</stageThreshold>
      <weakClassifiers>
        <_>
          <internalNodes>
            0 -1 20 5.6664302945137024e-02</internalNodes>
          <leafValues>
            -9.3421053886413574e-01 8.8235294818878174e-01</leafValues></_>
        <_>
          <internalNodes>
            0 -1 7 -4.3887607753276825e-02</internalNodes>
          <leafValues>
            6.1923468112945557e-01 -9.1681927442550659e-01</leafValues></_>
        <_>
          <internalNodes>
            0 -1 40 4.2466118931770325e-02</internalNodes>
          <leafValues>
            -8.4220159053802490e-01 7.0542865991592407e-01</leafValues></_></weakClassifiers></_>
    <!-- stage 1 -->
    <_>
      <maxWeakCount>3</maxWeakCount>
      <stageThreshold>-9.0662103891372681e-01</stageThreshold>
      <weakClassifiers>
        <_>
          <internalNodes>
            0 -1 27 7.9615086317062378e-02</internalNodes>
          <leafValues>
            -8.3900928497314453e-01 9.2771083116531372e-01</leafValues></_>
        <_>
          <internalNodes>
            0 -1 29 6.2130600214004517e-02</internalNodes>
          <leafValues>
            -7.1670216321945190e-01 8.5354351997375488e-01</leafValues></_>
        <_>
          <internalNodes>
            0 -1 19 5.2148193120956421e-02</internalNodes>
          <leafValues>
            -8.4820514917373657e-01 6.4909040927886963e-01</leafValues></_></weakClassifiers></_>
    <!-- stage 2 -->
    <_>
      <maxWeakCount>5</maxWeakCount>
      <stageThreshold>-1.4073861837387085e+00</stageThreshold>
      <weakClassifiers>
        <_>
          <internalNodes>
            0 -1 25 7.7433377504348755e-02</internalNodes>
          <leafValues>
            -8.0428135395050049e-01 8.7341773509979248e-01</leafValues></_>
        <_>
          <internalNodes>
            0 -1 8 -4.0857963263988495e-02</internalNodes>
          <leafValues>
            5.3749817609786987e-01 -8.8996410369873047e-01</leafValues></_>
        <_>
          <internalNodes>
            0 -1 23 -1.3361066579818726e-02</internalNodes>
          <leafValues>
            4.6432620286941528e-01 -7.7584743499755859e-01</leafValues></_>
        <_>
          <internalNodes>
            0 -1 10 -5.7788349688053131e-02</internalNodes>
          <leafValues>
            5.3194528818130493e-01 -8.7935543060302734e-01</leafValues></_>
        <_>
          <internalNodes>
            0 -1 9 -2.7319682762026787e-02</internalNodes>
          <leafValues>
            7.0188856124877930e-01 -6.0615557432174683e-01</leafValues></_></weakClassifiers></_>
    <!-- stage 3 -->
    <_>
      <maxWeakCount>5</maxWeakCount>
      <stageThreshold>-1.1690499782562256e+00</stageThreshold>
      <weakClassifiers>
        <_>
          <internalNodes>
            0 -1 35 -9.2821002006530762e-02</internalNodes>
          <leafValues>
            8.4848487377166748e-01 -7.3529410362243652e-01</leafValues></_>
        <_>
          <internalNodes>
            0 -1 42 1.1952801607549191e-02</internalNodes>
          <leafValues>
            -5.1429343223571777e-01 8.8732612133026123e-01</leafValues></_>
        <_>
          <internalNodes>
            0 -1 0 3.6080077290534973e-02</internalNodes>
          <leafValues>
            -5.9104073047637939e-01 6.4880931377410889e-01</leafValues></_>
        <_>
          <internalNodes>
            0 -1 56 -6.0827180277556181e-05</internalNodes>
          <leafValues>
            4.1529312729835510e-01 -9.0714353322982788e-01</leafValues></_>
        <_>
          <internalNodes>
            0 -1 34 8.4703112952411175e-04</internalNodes>
          <leafValues>
            3.3887183666229248e-01 -9.0097570419311523e-01</leafValues></_></weakClassifiers></_>
    <!-- stage 4 -->
    <_>
      <maxWeakCount>6</maxWeakCount>
      <stageThreshold>-1.1728447675704956e+00</stageThreshold>
      <weakClassifiers>
        <_>
          <internalNodes>
            0 -1 21 6.3684336841106415e-02</internalNodes>
          <leafValues>
            -7.8125000000000000e-01 6.5116280317306519e-01</leafValues></_>
        <_>
          <internalNodes>
            0 -1 63 -6.4372972701676190e-05</internalNodes>
          <leafValues>
            2.9549840092658997e-01 -8.6097729206085205e-01</leafValues></_>
        <_>
          <internalNodes>
            0 -1 44 5.6864703074097633e-03</internalNodes>
          <leafValues>
            -7.9002910852432251e-01 3.6016020178794861e-01</leafValues></_>
        <_>
          <internalNodes>
            0 -1 14 1.7148360610008240e-02</internalNodes>
          <leafValues>
            -6.1513292789459229e-01 4.6969693899154663e-01</leafValues></_>
        <_>
          <internalNodes>
            0 -1 17 -2.4908720661187544e-05</internalNodes>
          <leafValues>
            -9.0105921030044556e-01 3.5499823093414307e-01</leafValues></_>
        <_>
          <internalNodes>
            0 -1 22 -2.7908422052860260e-02</internalNodes>
          <leafValues>
            3.6935698986053467e-01 -7.9070997238159180e-01</leafValues></_></weakClassifiers></_>
    <!-- stage 5 -->
    <_>
      <maxWeakCount>3</maxWeakCount>
      <stageThreshold>-2.0319710671901703e-01</stageThreshold>
      <weakClassifiers>
        <_>
          <internalNodes>
            0 -1 33 8.1724062561988831e-02</internalNodes>
          <leafValues>
            -7.2941178083419800e-01 8.1818181276321411e-01</leafValues></_>
        <_>
          <internalNodes>
            0 -1 60 -5.8505363995209336e-04</internalNodes>
          <leafValues>
            -9.7966891527175903e-01 2.7072820067405701e-01</leafValues></_>
        <_>
          <internalNodes>
            0 -1 51 1.8353031191509217e-04</internalNodes>
          <leafValues>
            2.5548645853996277e-01 -9.5180720090866089e-01</leafValues></_></weakClassifiers></_>
    <!-- stage 6 -->
    <_>
      <maxWeakCount>4</maxWeakCount>
      <stageThreshold>-1.0672119855880737e+00</stageThreshold>
      <weakClassifiers>
        <_>
          <internalNodes>
            0 -1 60 -1.0269179256283678e-05</internalNodes>
          <leafValues>
            9.7142860293388367e-02 -9.1341990232467651e-01</leafValues></_>
        <_>
          <internalNodes>
            0 -1 50 -1.2193302973173559e-04</internalNodes>
          <leafValues>
            -9.3631416559219360e-01 2.4778106808662415e-01</leafValues></_>
        <_>
          <internalNodes>
            0 -1 18 2.2640308365225792e-02</internalNodes>
          <leafValues>
            -5.5642074346542358e-01 6.1939215660095215e-01</leafValues></_>
        <_>
          <internalNodes>
            0 -1 28 -1.7021381063386798e-04</internalNodes>
          <leafValues>
            3.2838007807731628e-01 -8.8376432657241821e-01</leafValues></_></weakClassifiers></_>
    <!-- stage 7 -->
    <_>
      <maxWeakCount>6</maxWeakCount>
      <stageThreshold>-1.3877397775650024e+00</stageThreshold>
      <weakClassifiers>
        <_>
          <internalNodes>
            0 -1 53 -1.1595541764108930e-05</internalNodes>
          <leafValues>
            3.8251366466283798e-02 -9.0134531259536743e-01</leafValues></_>
        <_>
          <internalNodes>
            0 -1 31 -5.9337609854992479e-05</internalNodes>
          <leafValues>
            -9.0611082315444946e-01 1.7519947886466980e-01</leafValues></_>
        <_>
          <internalNodes>
            0 -1 66 -6.8797220592387021e-05</internalNodes>
          <leafValues>
            3.2758608460426331e-01 -7.2757601737976074e-01</leafValues></_>
        <_>
          <internalNodes>
            0 -1 46 -1.1375645044608973e-05</internalNodes>
          <leafValues>
            4.1127079725265503e-01 -7.6496362686157227e-01</leafValues></_>
        <_>
          <internalNodes>
            0 -1 5 -2.1432491019368172e-02</internalNodes>
          <leafValues>
            4.4809842109680176e-01 -6.8112629652023315e-01</leafValues></_>
        <_>
          <internalNodes>
            0 -1 45 2.4500747676938772e-03</internalNodes>
          <leafValues>
            -6.5167355537414551e-01 5.0582373142242432e-01</leafValues></_></weakClassifiers></_>
    <!-- stage 8 -->
    <_>
      <maxWeakCount>5</maxWeakCount>
      <stageThreshold>-9.3489885330200195e-01</stageThreshold>
      <weakClassifiers>
        <_>
          <internalNodes>
            0 -1 48 4.2820490896701813e-02</internalNodes>
          <leafValues>
            -6.9523811340332031e-01 2.7472528815269470e-01</leafValues></_>
        <_>
          <internalNodes>
            0 -1 11 -1.7638459801673889e-02</internalNodes>
          <leafValues>
            2.9411742091178894e-01 -8.3298581838607788e-01</leafValues></_>
        <_>
          <internalNodes>
            0 -1 43 -5.4543354053748772e-05</internalNodes>
          <leafValues>
            2.4998085200786591e-01 -9.2256957292556763e-01</leafValues></_>
        <_>
          <internalNodes>
            0 -1 2 -2.5080531486310065e-04</internalNodes>
          <leafValues>
            -9.8229634761810303e-01 2.3537182807922363e-01</leafValues></_>
        <_>
          <internalNodes>
            0 -1 15 8.3743594586849213e-03</internalNodes>
          <leafValues>
            3.1055948138237000e-01 -7.4244159460067749e-01</leafValues></_></weakClassifiers></_>
    <!-- stage 9 -->
    <_>
      <maxWeakCount>5</maxWeakCount>
      <stageThreshold>-6.8596130609512329e-01</stageThreshold>
      <weakClassifiers>
        <_>
          <internalNodes>
            0 -1 39 -8.8460586965084076e-02</internalNodes>
          <leafValues>
            5.4838711023330688e-01 -6.6279071569442749e-01</leafValues></_>
        <_>
          <internalNodes>
            0 -1 59 -1.7413138266419992e-05</internalNodes>
          <leafValues>
            3.1151711940765381e-01 -7.2501575946807861e-01</leafValues></_>
        <_>
          <internalNodes>
            0 -1 26 -4.5694134314544499e-05</internalNodes>
          <leafValues>
            -8.4912496805191040e-01 2.9279071092605591e-01</leafValues></_>
        <_>
          <internalNodes>
            0 -1 32 5.5725937272654846e-05</internalNodes>
          <leafValues>
            3.2178416848182678e-01 -8.6734104156494141e-01</leafValues></_>
        <_>
          <internalNodes>
            0 -1 24 -1.0030852536146995e-05</internalNodes>
          <leafValues>
            2.3986259102821350e-01 -8.6304247379302979e-01</leafValues></_></weakClassifiers></_>
    <!-- stage 10 -->
    <_>
      <maxWeakCount>6</maxWeakCount>
      <stageThreshold>-7.4661773443222046e-01</stageThreshold>
      <weakClassifiers>
        <_>
          <internalNodes>
            0 -1 38 -4.6545300632715225e-02</internalNodes>
          <leafValues>
            3.4177213907241821e-01 -6.7584097385406494e-01</leafValues></_>
        <_>
          <internalNodes>
            0 -1 47 -1.4811535947956145e-04</internalNodes>
          <leafValues>
            -9.3191355466842651e-01 1.6350652277469635e-01</leafValues></_>
        <_>
          <internalNodes>
            0 -1 65 -1.9580580556066707e-05</internalNodes>
          <leafValues>
            3.2960459589958191e-01 -6.3242614269256592e-01</leafValues></_>
        <_>
          <internalNodes>
            0 -1 30 -1.8646012176759541e-04</internalNodes>
          <leafValues>
            -9.5412963628768921e-01 2.6258772611618042e-01</leafValues></_>
        <_>
          <internalNodes>
            0 -1 3 -1.4746517408639193e-03</internalNodes>
          <leafValues>
            2.2916349768638611e-01 -9.1451334953308105e-01</leafValues></_>
        <_>
          <internalNodes>
            0 -1 58 -1.0657380335032940e-04</internalNodes>
          <leafValues>
            -1. 1.6107831895351410e-01</leafValues></_></weakClassifiers></_>
    <!-- stage 11 -->
    <_>
      <maxWeakCount>5</maxWeakCount>
      <stageThreshold>-1.1028375625610352e+00</stageThreshold>
      <weakClassifiers>
        <_>
          <internalNodes>
            0 -1 13 -1.5083104372024536e-03</internalNodes>
          <leafValues>
            -1.0752688162028790e-02 -8.7272727489471436e-01</leafValues></_>
        <_>
          <internalNodes>
            0 -1 64 -2.0257424694136716e-05</internalNodes>
          <leafValues>
            1.9844548404216766e-01 -7.6902931928634644e-01</leafValues></_>
        <_>
          <internalNodes>
            0 -1 41 -6.5249871113337576e-05</internalNodes>
          <leafValues>
            2.6818153262138367e-01 -7.6738911867141724e-01</leafValues></_>
        <_>
          <internalNodes>
            0 -1 52 -5.6287646293640137e-03</internalNodes>
          <leafValues>
            -9.2169433832168579e-01 2.5224408507347107e-01</leafValues></_>
        <_>
          <internalNodes>
            0 -1 54 -1.8713079043664038e-05</internalNodes>
          <leafValues>
            2.4675126373767853e-01 -8.4348118305206299e-01</leafValues></_></weakClassifiers></_>
    <!-- stage 12 -->
    <_>
      <maxWeakCount>5</maxWeakCount>
      <stageThreshold>-7.6807361841201782e-01</stageThreshold>
      <weakClassifiers>
        <_>
          <internalNodes>
            0 -1 57 3.8026116788387299e-02</internalNodes>
          <leafValues>
            -6.5294116735458374e-01 4.2424243688583374e-01</leafValues></_>
        <_>
          <internalNodes>
            0 -1 37 2.8658170253038406e-02</internalNodes>
          <leafValues>
            -3.2734331488609314e-01 8.4965962171554565e-01</leafValues></_>
        <_>
          <internalNodes>
            0 -1 16 -1.0516751557588577e-02</internalNodes>
          <leafValues>
            3.4970423579216003e-01 -7.0393973588943481e-01</leafValues></_>
        <_>
          <internalNodes>
            0 -1 36 -4.4445157982409000e-05</internalNodes>
          <leafValues>
            -5.6025820970535278e-01 4.1144606471061707e-01</leafValues></_>
        <_>
          <internalNodes>
            0 -1 6 -6.8256892263889313e-02</internalNodes>
          <leafValues>
            5.0470453500747681e-01 -5.2878087759017944e-01</leafValues></_></weakClassifiers></_>
    <!-- stage 13 -->
    <_>
      <maxWeakCount>7</maxWeakCount>
      <stageThreshold>-1.1820058822631836e+00</stageThreshold>
      <weakClassifiers>
        <_>
          <internalNodes>
            0 -1 49 1.5906739979982376e-02</internalNodes>
          <leafValues>
            -6.6871166229248047e-01 3.0000001192092896e-01</leafValues></_>
        <_>
          <internalNodes>
            0 -1 55 6.7813380155712366e-05</internalNodes>
          <leafValues>
            2.0156203210353851e-01 -8.0379146337509155e-01</leafValues></_>
        <_>
          <internalNodes>
            0 -1 61 -2.3526875884272158e-04</internalNodes>
          <leafValues>
            2.3674994707107544e-01 -9.1646134853363037e-01</leafValues></_>
        <_>
          <internalNodes>
            0 -1 4 2.0972325000911951e-03</internalNodes>
          <leafValues>
            2.2952944040298462e-01 -8.7675201892852783e-01</leafValues></_>
        <_>
          <internalNodes>
            0 -1 12 -1.8758678343147039e-03</internalNodes>
          <leafValues>
            -7.9774528741836548e-01 2.9363998770713806e-01</leafValues></_>
        <_>
          <internalNodes>
            0 -1 62 -1.9291561329737306e-05</internalNodes>
          <leafValues>
            5.2525812387466431e-01 -4.8008149862289429e-01</leafValues></_>
        <_>
          <internalNodes>
            0 -1 1 -3.6096638068556786e-03</internalNodes>
          <leafValues>
            -7.9291975498199463e-01 2.9608690738677979e-01</leafValues></_></weakClassifiers></_></stages>
  <features>
    <_>
      <rects>
        <_>
          0 0 21 12 -1.</_>
        <_>
          0 4 21 4 3.</_></rects>
      <tilted>0</tilted></_>
    <_>
      <rects>
        <_>
          0 1 2 18 -1.</_>
        <_>
          0 10 2 9 2.</_></rects>
      <tilted>0</tilted></_>
    <_>
      <rects>
        <_>
          0 8 8 4 -1.</_>
        <_>
          4 8 4 4 2.</_></rects>
      <tilted>0</tilted></_>
    <_>
      <rects>
        <_>
          0 9 28 6 -1.</_>
        <_>
          0 12 28 3 2.</_></rects>
      <tilted>0</tilted></_>
    <_>
      <rects>
        <_>
          0 10 30 12 -1.</_>
        <_>
          0 14 30 4 3.</_></rects>
      <tilted>0</tilted></_>
    <_>
      <rects>
        <_>
          0 22 21 8 -1.</_>
        <_>
          0 26 21 4 2.</_></rects>
      <tilted>0</tilted></_>
    <_>
      <rects>
        <_>
          1 1 12 20 -1.</_>
        <_>
          1 1 6 10 2.</_>
        <_>
          7 11 6 10 2.</_></rects>
      <tilted>0</tilted></_>
    <_>
      <rects>
        <_>
          1 1 14 18 -1.</_>
        <_>
          1 1 7 9 2.</_>
        <_>
          8 10 7 9 2.</_></rects>
      <tilted>0</tilted></_>
    <_>
      <rects>
        <_>
          1 2 18 14 -1.</_>
        <_>
          1 2 9 7 2.</_>
        <_>
          10 9 9 7 2.</_></rects>
      <tilted>0</tilted></_>
    <_>
      <rects>
        <_>
          2 3 8 18 -1.</_>
        <_>
          2 3 4 9 2.</_>
        <_>
          6 12 4 9 2.</_></rects>
      <tilted>0</tilted></_>
    <_>
      <rects>
        <_>
          2 5 12 20 -1.</_>
        <_>
          2 15 12 10 2.</_></rects>
      <tilted>0</tilted></_>
    <_>
      <rects>
        <_>
          2 5 28 11 -1.</_>
        <_>
          16 5 14 11 2.</_></rects>
      <tilted>0</tilted></_>
    <_>
      <rects>
        <_>
          2 13 23 2 -1.</_>
        <_>
          2 14 23 1 2.</_></rects>
      <tilted>0</tilted></_>
    <_>
      <rects>
        <_>
          4 5 21 12 -1.</_>
        <_>
          4 9 21 4 3.</_></rects>
      <tilted>0</tilted></_>
    <_>
      <rects>
        <_>
          5 0 25 6 -1.</_>
        <_>
          5 3 25 3 2.</_></rects>
      <tilted>0</tilted></_>
    <_>
      <rects>
        <_>
          5 3 12 24 -1.</_>
        <_>
          9 3 4 24 3.</_></rects>
      <tilted>0</tilted></_>
    <_>
      <rects>
        <_>
          5 5 24 8 -1.</_>
        <_>
          5 9 24 4 2.</_></rects>
      <tilted>0</tilted></_>
    <_>
      <rects>
        <_>
          6 6 6 2 -1.</_>
        <_>
          9 6 3 2 2.</_></rects>
      <tilted>0</tilted></_>
    <_>
      <rects>
        <_>
          6 18 24 1 -1.</_>
        <_>
          14 18 8 1 3.</_></rects>
      <tilted>0</tilted></_>
    <_>
      <rects>
        <_>
          6 18 24 8 -1.</_>
        <_>
          14 18 8 8 3.</_></rects>
      <tilted>0</tilted></_>
    <_>
      <rects>
        <_>
          7 8 16 12 -1.</_>
        <_>
          7 8 8 6 2.</_>
        <_>
          15 14 8 6 2.</_></rects>
      <tilted>0</tilted></_>
    <_>
      <rects>
        <_>
          7 12 10 10 -1.</_>
        <_>
          7 12 5 5 2.</_>
        <_>
          12 17 5 5 2.</_></rects>
      <tilted>0</tilted></_>
    <_>
      <rects>
        <_>
          7 15 22 12 -1.</_>
        <_>
          7 15 11 6 2.</_>
        <_>
          18 21 11 6 2.</_></rects>
      <tilted>0</tilted></_>
    <_>
      <rects>
        <_>
          7 24 11 6 -1.</_>
        <_>
          7 27 11 3 2.</_></rects>
      <tilted>0</tilted></_>
    <_>
      <rects>
        <_>
          7 26 13 4 -1.</_>
        <_>
          7 28 13 2 2.</_></rects>
      <tilted>0</tilted></_>
    <_>
      <rects>
        <_>
          8 10 12 10 -1.</_>
        <_>
          8 10 6 5 2.</_>
        <_>
          14 15 6 5 2.</_></rects>
      <tilted>0</tilted></_>
    <_>
      <rects>
        <_>
          9 9 4 1 -1.</_>
        <_>
          11 9 2 1 2.</_></rects>
      <tilted>0</tilted></_>
    <_>
      <rects>
        <_>
          9 9 12 12 -1.</_>
        <_>
          9 9 6 6 2.</_>
        <_>
          15 15 6 6 2.</_></rects>
      <tilted>0</tilted></_>
    <_>
      <rects>
        <_>
          10 2 12 23 -1.</_>
        <_>
          14 2 4 23 3.</_></rects>
      <tilted>0</tilted></_>
    <_>
      <rects>
        <_>
          10 5 10 14 -1.</_>
        <_>
          10 5 5 7 2.</_>
        <_>
          15 12 5 7 2.</_></rects>
      <tilted>0</tilted></_>
    <_>
      <rects>
        <_>
          10 6 2 4 -1.</_>
        <_>
          10 8 2 2 2.</_></rects>
      <tilted>0</tilted></_>
    <_>
      <rects>
        <_>
          10 7 4 1 -1.</_>
        <_>
          12 7 2 1 2.</_></rects>
      <tilted>0</tilted></_>
    <_>
      <rects>
        <_>
          10 9 2 1 -1.</_>
        <_>
          11 9 1 1 2.</_></rects>
      <tilted>0</tilted></_>
    <_>
      <rects>
        <_>
          10 9 10 10 -1.</_>
        <_>
          10 9 5 5 2.</_>
        <_>
          15 14 5 5 2.</_></rects>
      <tilted>0</tilted></_>
    <_>
      <rects>
        <_>
          11 0 2 27 -1.</_>
        <_>
          12 0 1 27 2.</_></rects>
      <tilted>0</tilted></_>
    <_>
      <rects>
        <_>
          11 8 7 15 -1.</_>
        <_>
          11 13 7 5 3.</_></rects>
      <tilted>0</tilted></_>
    <_>
      <rects>
        <_>
          12 9 2 2 -1.</_>
        <_>
          12 10 2 1 2.</_></rects>
      <tilted>0</tilted></_>
    <_>
      <rects>
        <_>
          12 11 15 2 -1.</_>
        <_>
          17 11 5 2 3.</_></rects>
      <tilted>0</tilted></_>
    <_>
      <rects>
        <_>
          13 5 3 12 -1.</_>
        <_>
          13 11 3 6 2.</_></rects>
      <tilted>0</tilted></_>
    <_>
      <rects>
        <_>
          13 5 3 18 -1.</_>
        <_>
          13 11 3 6 3.</_></rects>
      <tilted>0</tilted></_>
    <_>
      <rects>
        <_>
          13 14 7 15 -1.</_>
        <_>
          13 19 7 5 3.</_></rects>
      <tilted>0</tilted></_>
    <_>
      <rects>
        <_>
          13 22 2 4 -1.</_>
        <_>
          13 24 2 2 2.</_></rects>
      <tilted>0</tilted></_>
    <_>
      <rects>
        <_>
          14 12 12 1 -1.</_>
        <_>
          18 12 4 1 3.</_></rects>
      <tilted>0</tilted></_>
    <_>
      <rects>
        <_>
          14 23 2 4 -1.</_>
        <_>
          14 25 2 2 2.</_></rects>
      <tilted>0</tilted></_>
    <_>
      <rects>
        <_>
          15 4 8 17 -1.</_>
        <_>
          19 4 4 17 2.</_></rects>
      <tilted>0</tilted></_>
    <_>
      <rects>
        <_>
          15 14 2 15 -1.</_>
        <_>
          16 14 1 15 2.</_></rects>
      <tilted>0</tilted></_>
    <_>
      <rects>
        <_>
          15 21 5 2 -1.</_>
        <_>
          15 22 5 1 2.</_></rects>
      <tilted>0</tilted></_>
    <_>
      <rects>
        <_>
          15 22 6 2 -1.</_>
        <_>
          17 22 2 2 3.</_></rects>
      <tilted>0</tilted></_>
    <_>
      <rects>
        <_>
          16 0 6 12 -1.</_>
        <_>
          16 4 6 4 3.</_></rects>
      <tilted>0</tilted></_>
    <_>
      <rects>
        <_>
          16 3 13 6 -1.</_>
        <_>
          16 5 13 2 3.</_></rects>
      <tilted>0</tilted></_>
    <_>
      <rects>
        <_>
          16 20 2 3 -1.</_>
        <_>
          16 21 2 1 3.</_></rects>
      <tilted>0</tilted></_>
    <_>
      <rects>
        <_>
          16 20 3 3 -1.</_>
        <_>
          16 21 3 1 3.</_></rects>
      <tilted>0</tilted></_>
    <_>
      <rects>
        <_>
          17 0 10 22 -1.</_>
        <_>
          17 11 10 11 2.</_></rects>
      <tilted>0</tilted></_>
    <_>
      <rects>
        <_>
          17 18 3 2 -1.</_>
        <_>
          17 19 3 1 2.</_></rects>
      <tilted>0</tilted></_>
    <_>
      <rects>
        <_>
          17 19 1 4 -1.</_>
        <_>
          17 21 1 2 2.</_></rects>
      <tilted>0</tilted></_>
    <_>
      <rects>
        <_>
          17 19 3 3 -1.</_>
        <_>
          17 20 3 1 3.</_></rects>
      <tilted>0</tilted></_>
    <_>
      <rects>
        <_>
          17 20 1 6 -1.</_>
        <_>
          17 23 1 3 2.</_></rects>
      <tilted>0</tilted></_>
    <_>
      <rects>
        <_>
          18 11 12 7 -1.</_>
        <_>
          22 11 4 7 3.</_></rects>
      <tilted>0</tilted></_>
    <_>
      <rects>
        <_>
          18 18 1 2 -1.</_>
        <_>
          18 19 1 1 2.</_></rects>
      <tilted>0</tilted></_>
    <_>
      <rects>
        <_>
          18 18 2 2 -1.</_>
        <_>
          18 19 2 1 2.</_></rects>
      <tilted>0</tilted></_>
    <_>
      <rects>
        <_>
          19 18 5 2 -1.</_>
        <_>
          19 19 5 1 2.</_></rects>
      <tilted>0</tilted></_>
    <_>
      <rects>
        <_>
          19 20 3 6 -1.</_>
        <_>
          19 23 3 3 2.</_></rects>
      <tilted>0</tilted></_>
    <_>
      <rects>
        <_>
          20 13 2 2 -1.</_>
        <_>
          20 14 2 1 2.</_></rects>
      <tilted>0</tilted></_>
    <_>
      <rects>
        <_>
          20 16 1 6 -1.</_>
        <_>
          20 19 1 3 2.</_></rects>
      <tilted>0</tilted></_>
    <_>
      <rects>
        <_>
          20 18 4 2 -1.</_>
        <_>
          20 19 4 1 2.</_></rects>
      <tilted>0</tilted></_>
    <_>
      <rects>
        <_>
          21 15 2 2 -1.</_>
        <_>
          21 16 2 1 2.</_></rects>
      <tilted>0</tilted></_>
    <_>
      <rects>
        <_>
          21 16 2 4 -1.</_>
        <_>
          21 18 2 2 2.</_></rects>
      <tilted>0</tilted></_></features></cascade>
</opencv_storage>
