<?xml version="1.0"?>
<opencv_storage>
<cascade>
  <stageType>BOOST</stageType>
  <featureType>HAAR</featureType>
  <height>30</height>
  <width>30</width>
  <stageParams>
    <boostType>GAB</boostType>
    <minHitRate>9.9800002574920654e-01</minHitRate>
    <maxFalseAlarm>3.0000001192092896e-01</maxFalseAlarm>
    <weightTrimRate>9.4999999999999996e-01</weightTrimRate>
    <maxDepth>1</maxDepth>
    <maxWeakCount>100</maxWeakCount></stageParams>
  <featureParams>
    <maxCatCount>0</maxCatCount>
    <featSize>1</featSize>
    <mode>ALL</mode></featureParams>
  <stageNum>10</stageNum>
  <stages>
    <!-- stage 0 -->
    <_>
      <maxWeakCount>1</maxWeakCount>
      <stageThreshold>9.9004977941513062e-01</stageThreshold>
      <weakClassifiers>
        <_>
          <internalNodes>
            0 -1 9 1.2452981621026993e-01</internalNodes>
          <leafValues>
            -1. 9.9004977941513062e-01</leafValues></_></weakClassifiers></_>
    <!-- stage 1 -->
    <_>
      <maxWeakCount>2</maxWeakCount>
      <stageThreshold>-2.0843157544732094e-02</stageThreshold>
      <weakClassifiers>
        <_>
          <internalNodes>
            0 -1 30 1.0132411494851112e-02</internalNodes>
          <leafValues>
            -9.3298971652984619e-01 9.3842363357543945e-01</leafValues></_>
        <_>
          <internalNodes>
            0 -1 5 2.6802424341440201e-02</internalNodes>
          <leafValues>
            -9.3065625429153442e-01 9.1214650869369507e-01</leafValues></_></weakClassifiers></_>
    <!-- stage 2 -->
    <_>
      <maxWeakCount>2</maxWeakCount>
      <stageThreshold>1.8973186612129211e-02</stageThreshold>
      <weakClassifiers>
        <_>
          <internalNodes>
            0 -1 26 -1.1018471792340279e-02</internalNodes>
          <leafValues>
            9.5532196760177612e-01 -7.4487471580505371e-01</leafValues></_>
        <_>
          <internalNodes>
            0 -1 18 -5.1122821867465973e-02</internalNodes>
          <leafValues>
            8.4579318761825562e-01 -9.3634873628616333e-01</leafValues></_></weakClassifiers></_>
    <!-- stage 3 -->
    <_>
      <maxWeakCount>4</maxWeakCount>
      <stageThreshold>-2.4895311892032623e-01</stageThreshold>
      <weakClassifiers>
        <_>
          <internalNodes>
            0 -1 29 -3.5614043474197388e-02</internalNodes>
          <leafValues>
            8.4179455041885376e-01 -8.8668555021286011e-01</leafValues></_>
        <_>
          <internalNodes>
            0 -1 1 1.6115885227918625e-02</internalNodes>
          <leafValues>
            -7.8168517351150513e-01 7.3280328512191772e-01</leafValues></_>
        <_>
          <internalNodes>
            0 -1 27 -4.9621297512203455e-04</internalNodes>
          <leafValues>
            -9.0018415451049805e-01 5.7921695709228516e-01</leafValues></_>
        <_>
          <internalNodes>
            0 -1 8 4.1676815599203110e-03</internalNodes>
          <leafValues>
            -6.6170525550842285e-01 8.0511325597763062e-01</leafValues></_></weakClassifiers></_>
    <!-- stage 4 -->
    <_>
      <maxWeakCount>5</maxWeakCount>
      <stageThreshold>-9.6754139661788940e-01</stageThreshold>
      <weakClassifiers>
        <_>
          <internalNodes>
            0 -1 32 5.5845160037279129e-02</internalNodes>
          <leafValues>
            -9.1275167465209961e-01 7.4501109123229980e-01</leafValues></_>
        <_>
          <internalNodes>
            0 -1 4 1.2875316664576530e-02</internalNodes>
          <leafValues>
            -6.6309422254562378e-01 8.1083041429519653e-01</leafValues></_>
        <_>
          <internalNodes>
            0 -1 17 -5.4320402443408966e-02</internalNodes>
          <leafValues>
            8.6181908845901489e-01 -5.7671737670898438e-01</leafValues></_>
        <_>
          <internalNodes>
            0 -1 14 -5.7204239070415497e-02</internalNodes>
          <leafValues>
            5.4516673088073730e-01 -9.6346503496170044e-01</leafValues></_>
        <_>
          <internalNodes>
            0 -1 0 9.1700948774814606e-02</internalNodes>
          <leafValues>
            -8.3427679538726807e-01 6.3985508680343628e-01</leafValues></_></weakClassifiers></_>
    <!-- stage 5 -->
    <_>
      <maxWeakCount>5</maxWeakCount>
      <stageThreshold>-8.1036561727523804e-01</stageThreshold>
      <weakClassifiers>
        <_>
          <internalNodes>
            0 -1 25 -2.0093187689781189e-02</internalNodes>
          <leafValues>
            8.2352942228317261e-01 -5.8373206853866577e-01</leafValues></_>
        <_>
          <internalNodes>
            0 -1 3 -2.6758702006191015e-03</internalNodes>
          <leafValues>
            6.2601983547210693e-01 -9.3085002899169922e-01</leafValues></_>
        <_>
          <internalNodes>
            0 -1 28 3.3396057784557343e-02</internalNodes>
          <leafValues>
            -6.2469750642776489e-01 7.9055815935134888e-01</leafValues></_>
        <_>
          <internalNodes>
            0 -1 7 8.4748506546020508e-02</internalNodes>
          <leafValues>
            -8.5841166973114014e-01 5.7998794317245483e-01</leafValues></_>
        <_>
          <internalNodes>
            0 -1 19 2.1069524809718132e-03</internalNodes>
          <leafValues>
            -6.9451195001602173e-01 7.4892604351043701e-01</leafValues></_></weakClassifiers></_>
    <!-- stage 6 -->
    <_>
      <maxWeakCount>4</maxWeakCount>
      <stageThreshold>-2.8940463066101074e-01</stageThreshold>
      <weakClassifiers>
        <_>
          <internalNodes>
            0 -1 23 3.2641440629959106e-02</internalNodes>
          <leafValues>
            -6.0364466905593872e-01 8.7385022640228271e-01</leafValues></_>
        <_>
          <internalNodes>
            0 -1 12 1.1074071517214179e-04</internalNodes>
          <leafValues>
            6.4495986700057983e-01 -9.7489273548126221e-01</leafValues></_>
        <_>
          <internalNodes>
            0 -1 2 -3.3297858317382634e-04</internalNodes>
          <leafValues>
            5.7398235797882080e-01 -8.3452171087265015e-01</leafValues></_>
        <_>
          <internalNodes>
            0 -1 21 1.6362667083740234e-03</internalNodes>
          <leafValues>
            -7.8430187702178955e-01 6.4615958929061890e-01</leafValues></_></weakClassifiers></_>
    <!-- stage 7 -->
    <_>
      <maxWeakCount>4</maxWeakCount>
      <stageThreshold>-4.2407262325286865e-01</stageThreshold>
      <weakClassifiers>
        <_>
          <internalNodes>
            0 -1 10 1.1629118584096432e-02</internalNodes>
          <leafValues>
            -9.7959184646606445e-01 7.5938189029693604e-01</leafValues></_>
        <_>
          <internalNodes>
            0 -1 31 4.8743933439254761e-02</internalNodes>
          <leafValues>
            -6.9791442155838013e-01 8.2705527544021606e-01</leafValues></_>
        <_>
          <internalNodes>
            0 -1 6 1.1387514881789684e-02</internalNodes>
          <leafValues>
            -7.1105569601058960e-01 6.9193524122238159e-01</leafValues></_>
        <_>
          <internalNodes>
            0 -1 11 1.2988368049263954e-02</internalNodes>
          <leafValues>
            -9.4377058744430542e-01 5.6149840354919434e-01</leafValues></_></weakClassifiers></_>
    <!-- stage 8 -->
    <_>
      <maxWeakCount>4</maxWeakCount>
      <stageThreshold>1.1134799569845200e-01</stageThreshold>
      <weakClassifiers>
        <_>
          <internalNodes>
            0 -1 33 -8.7113836780190468e-03</internalNodes>
          <leafValues>
            7.4797689914703369e-01 -7.3731344938278198e-01</leafValues></_>
        <_>
          <internalNodes>
            0 -1 16 1.8697876948863268e-03</internalNodes>
          <leafValues>
            -5.4435896873474121e-01 9.0164148807525635e-01</leafValues></_>
        <_>
          <internalNodes>
            0 -1 22 -2.5928165763616562e-02</internalNodes>
          <leafValues>
            5.7138431072235107e-01 -9.3594247102737427e-01</leafValues></_>
        <_>
          <internalNodes>
            0 -1 15 -2.4730922654271126e-02</internalNodes>
          <leafValues>
            8.4367257356643677e-01 -5.4448753595352173e-01</leafValues></_></weakClassifiers></_>
    <!-- stage 9 -->
    <_>
      <maxWeakCount>3</maxWeakCount>
      <stageThreshold>1.9592104852199554e-01</stageThreshold>
      <weakClassifiers>
        <_>
          <internalNodes>
            0 -1 20 1.1051049828529358e-01</internalNodes>
          <leafValues>
            -9.7460317611694336e-01 7.9887002706527710e-01</leafValues></_>
        <_>
          <internalNodes>
            0 -1 24 9.8981498740613461e-04</internalNodes>
          <leafValues>
            -9.2836952209472656e-01 6.1295336484909058e-01</leafValues></_>
        <_>
          <internalNodes>
            0 -1 13 3.7288654595613480e-02</internalNodes>
          <leafValues>
            -9.6708160638809204e-01 5.5757087469100952e-01</leafValues></_></weakClassifiers></_></stages>
  <features>
    <_>
      <rects>
        <_>
          0 4 20 9 -1.</_>
        <_>
          5 4 10 9 2.</_></rects>
      <tilted>0</tilted></_>
    <_>
      <rects>
        <_>
          1 9 12 1 -1.</_>
        <_>
          5 13 4 1 3.</_></rects>
      <tilted>1</tilted></_>
    <_>
      <rects>
        <_>
          3 14 4 3 -1.</_>
        <_>
          3 14 2 3 2.</_></rects>
      <tilted>1</tilted></_>
    <_>
      <rects>
        <_>
          4 16 22 8 -1.</_>
        <_>
          4 18 22 4 2.</_></rects>
      <tilted>0</tilted></_>
    <_>
      <rects>
        <_>
          4 24 14 6 -1.</_>
        <_>
          4 26 14 2 3.</_></rects>
      <tilted>0</tilted></_>
    <_>
      <rects>
        <_>
          5 21 15 9 -1.</_>
        <_>
          10 24 5 3 9.</_></rects>
      <tilted>0</tilted></_>
    <_>
      <rects>
        <_>
          5 24 10 6 -1.</_>
        <_>
          5 26 10 2 3.</_></rects>
      <tilted>0</tilted></_>
    <_>
      <rects>
        <_>
          6 17 24 9 -1.</_>
        <_>
          12 17 12 9 2.</_></rects>
      <tilted>0</tilted></_>
    <_>
      <rects>
        <_>
          7 0 15 2 -1.</_>
        <_>
          7 1 15 1 2.</_></rects>
      <tilted>0</tilted></_>
    <_>
      <rects>
        <_>
          7 5 16 22 -1.</_>
        <_>
          7 5 8 11 2.</_>
        <_>
          15 16 8 11 2.</_></rects>
      <tilted>0</tilted></_>
    <_>
      <rects>
        <_>
          9 6 10 2 -1.</_>
        <_>
          9 6 5 2 2.</_></rects>
      <tilted>1</tilted></_>
    <_>
      <rects>
        <_>
          9 10 8 14 -1.</_>
        <_>
          13 10 4 14 2.</_></rects>
      <tilted>0</tilted></_>
    <_>
      <rects>
        <_>
          10 5 2 8 -1.</_>
        <_>
          10 7 2 4 2.</_></rects>
      <tilted>0</tilted></_>
    <_>
      <rects>
        <_>
          11 6 9 10 -1.</_>
        <_>
          11 6 9 5 2.</_></rects>
      <tilted>1</tilted></_>
    <_>
      <rects>
        <_>
          13 12 10 7 -1.</_>
        <_>
          13 12 5 7 2.</_></rects>
      <tilted>1</tilted></_>
    <_>
      <rects>
        <_>
          13 15 3 7 -1.</_>
        <_>
          14 16 1 7 3.</_></rects>
      <tilted>1</tilted></_>
    <_>
      <rects>
        <_>
          14 6 5 2 -1.</_>
        <_>
          14 7 5 1 2.</_></rects>
      <tilted>0</tilted></_>
    <_>
      <rects>
        <_>
          14 7 12 3 -1.</_>
        <_>
          18 7 4 3 3.</_></rects>
      <tilted>0</tilted></_>
    <_>
      <rects>
        <_>
          14 8 8 8 -1.</_>
        <_>
          16 10 4 8 2.</_></rects>
      <tilted>1</tilted></_>
    <_>
      <rects>
        <_>
          15 3 2 3 -1.</_>
        <_>
          15 3 1 3 2.</_></rects>
      <tilted>1</tilted></_>
    <_>
      <rects>
        <_>
          16 0 10 15 -1.</_>
        <_>
          11 5 10 5 3.</_></rects>
      <tilted>1</tilted></_>
    <_>
      <rects>
        <_>
          18 1 3 4 -1.</_>
        <_>
          18 1 3 2 2.</_></rects>
      <tilted>1</tilted></_>
    <_>
      <rects>
        <_>
          18 5 8 5 -1.</_>
        <_>
          20 7 4 5 2.</_></rects>
      <tilted>1</tilted></_>
    <_>
      <rects>
        <_>
          18 5 12 6 -1.</_>
        <_>
          16 7 12 2 3.</_></rects>
      <tilted>1</tilted></_>
    <_>
      <rects>
        <_>
          19 3 2 4 -1.</_>
        <_>
          19 3 1 4 2.</_></rects>
      <tilted>1</tilted></_>
    <_>
      <rects>
        <_>
          19 4 7 3 -1.</_>
        <_>
          18 5 7 1 3.</_></rects>
      <tilted>1</tilted></_>
    <_>
      <rects>
        <_>
          20 5 6 3 -1.</_>
        <_>
          19 6 6 1 3.</_></rects>
      <tilted>1</tilted></_>
    <_>
      <rects>
        <_>
          20 15 2 7 -1.</_>
        <_>
          20 15 1 7 2.</_></rects>
      <tilted>1</tilted></_>
    <_>
      <rects>
        <_>
          21 5 9 25 -1.</_>
        <_>
          24 5 3 25 3.</_></rects>
      <tilted>0</tilted></_>
    <_>
      <rects>
        <_>
          22 3 5 8 -1.</_>
        <_>
          20 5 5 4 2.</_></rects>
      <tilted>1</tilted></_>
    <_>
      <rects>
        <_>
          23 0 5 6 -1.</_>
        <_>
          21 2 5 2 3.</_></rects>
      <tilted>1</tilted></_>
    <_>
      <rects>
        <_>
          23 0 7 6 -1.</_>
        <_>
          21 2 7 2 3.</_></rects>
      <tilted>1</tilted></_>
    <_>
      <rects>
        <_>
          23 8 7 12 -1.</_>
        <_>
          19 12 7 4 3.</_></rects>
      <tilted>1</tilted></_>
    <_>
      <rects>
        <_>
          28 7 1 20 -1.</_>
        <_>
          28 7 1 10 2.</_></rects>
      <tilted>1</tilted></_></features></cascade>
</opencv_storage>
