<?xml version="1.0"?>
<opencv_storage>
<cascade>
  <stageType>BOOST</stageType>
  <featureType>HAAR</featureType>
  <height>30</height>
  <width>30</width>
  <stageParams>
    <boostType>GAB</boostType>
    <minHitRate>9.9800002574920654e-01</minHitRate>
    <maxFalseAlarm>3.0000001192092896e-01</maxFalseAlarm>
    <weightTrimRate>9.4999999999999996e-01</weightTrimRate>
    <maxDepth>1</maxDepth>
    <maxWeakCount>100</maxWeakCount></stageParams>
  <featureParams>
    <maxCatCount>0</maxCatCount>
    <featSize>1</featSize>
    <mode>ALL</mode></featureParams>
  <stageNum>10</stageNum>
  <stages>
    <!-- stage 0 -->
    <_>
      <maxWeakCount>2</maxWeakCount>
      <stageThreshold>4.6093515120446682e-03</stageThreshold>
      <weakClassifiers>
        <_>
          <internalNodes>
            0 -1 3 -1.4354746043682098e-01</internalNodes>
          <leafValues>
            9.9498116970062256e-01 -9.7518610954284668e-01</leafValues></_>
        <_>
          <internalNodes>
            0 -1 26 -1.3710097968578339e-01</internalNodes>
          <leafValues>
            9.8291879892349243e-01 -9.9037182331085205e-01</leafValues></_></weakClassifiers></_>
    <!-- stage 1 -->
    <_>
      <maxWeakCount>2</maxWeakCount>
      <stageThreshold>-6.4542271196842194e-02</stageThreshold>
      <weakClassifiers>
        <_>
          <internalNodes>
            0 -1 8 -2.2574491798877716e-02</internalNodes>
          <leafValues>
            9.2673993110656738e-01 -9.4225722551345825e-01</leafValues></_>
        <_>
          <internalNodes>
            0 -1 9 -5.2568405866622925e-02</internalNodes>
          <leafValues>
            8.7771493196487427e-01 -9.1779142618179321e-01</leafValues></_></weakClassifiers></_>
    <!-- stage 2 -->
    <_>
      <maxWeakCount>2</maxWeakCount>
      <stageThreshold>-1.1781027168035507e-01</stageThreshold>
      <weakClassifiers>
        <_>
          <internalNodes>
            0 -1 12 8.5420414805412292e-02</internalNodes>
          <leafValues>
            -8.4986597299575806e-01 8.6698913574218750e-01</leafValues></_>
        <_>
          <internalNodes>
            0 -1 17 -9.2144995927810669e-02</internalNodes>
          <leafValues>
            7.3205566406250000e-01 -1.</leafValues></_></weakClassifiers></_>
    <!-- stage 3 -->
    <_>
      <maxWeakCount>3</maxWeakCount>
      <stageThreshold>-9.2243582010269165e-01</stageThreshold>
      <weakClassifiers>
        <_>
          <internalNodes>
            0 -1 16 8.1577807664871216e-02</internalNodes>
          <leafValues>
            -8.7969923019409180e-01 9.3757802248001099e-01</leafValues></_>
        <_>
          <internalNodes>
            0 -1 2 -4.4527322053909302e-02</internalNodes>
          <leafValues>
            9.1531217098236084e-01 -8.0217128992080688e-01</leafValues></_>
        <_>
          <internalNodes>
            0 -1 13 1.1858269572257996e-02</internalNodes>
          <leafValues>
            -9.2580246925354004e-01 7.5943470001220703e-01</leafValues></_></weakClassifiers></_>
    <!-- stage 4 -->
    <_>
      <maxWeakCount>4</maxWeakCount>
      <stageThreshold>-1.5332322120666504e+00</stageThreshold>
      <weakClassifiers>
        <_>
          <internalNodes>
            0 -1 4 -2.9539104551076889e-02</internalNodes>
          <leafValues>
            7.8911566734313965e-01 -9.3081760406494141e-01</leafValues></_>
        <_>
          <internalNodes>
            0 -1 23 -7.4501826020423323e-05</internalNodes>
          <leafValues>
            -8.9873373508453369e-01 7.1548110246658325e-01</leafValues></_>
        <_>
          <internalNodes>
            0 -1 22 1.1591548100113869e-02</internalNodes>
          <leafValues>
            -7.1368420124053955e-01 9.1092973947525024e-01</leafValues></_>
        <_>
          <internalNodes>
            0 -1 1 -6.6780731081962585e-02</internalNodes>
          <leafValues>
            8.4898746013641357e-01 -7.0992994308471680e-01</leafValues></_></weakClassifiers></_>
    <!-- stage 5 -->
    <_>
      <maxWeakCount>1</maxWeakCount>
      <stageThreshold>7.6405733823776245e-01</stageThreshold>
      <weakClassifiers>
        <_>
          <internalNodes>
            0 -1 21 -4.9129361286759377e-05</internalNodes>
          <leafValues>
            -1. 7.6405733823776245e-01</leafValues></_></weakClassifiers></_>
    <!-- stage 6 -->
    <_>
      <maxWeakCount>4</maxWeakCount>
      <stageThreshold>-3.2889509201049805e-01</stageThreshold>
      <weakClassifiers>
        <_>
          <internalNodes>
            0 -1 11 -1.0223933495581150e-02</internalNodes>
          <leafValues>
            7.9090911149978638e-01 -9.2500001192092896e-01</leafValues></_>
        <_>
          <internalNodes>
            0 -1 24 -1.2276244163513184e-01</internalNodes>
          <leafValues>
            8.2179141044616699e-01 -8.6781740188598633e-01</leafValues></_>
        <_>
          <internalNodes>
            0 -1 25 2.6713456958532333e-02</internalNodes>
          <leafValues>
            -7.3166370391845703e-01 8.1036478281021118e-01</leafValues></_>
        <_>
          <internalNodes>
            0 -1 5 -9.5439264550805092e-03</internalNodes>
          <leafValues>
            6.5355753898620605e-01 -8.3001410961151123e-01</leafValues></_></weakClassifiers></_>
    <!-- stage 7 -->
    <_>
      <maxWeakCount>4</maxWeakCount>
      <stageThreshold>-2.1960644423961639e-01</stageThreshold>
      <weakClassifiers>
        <_>
          <internalNodes>
            0 -1 0 -1.6137287020683289e-02</internalNodes>
          <leafValues>
            8.1538462638854980e-01 -8.1408452987670898e-01</leafValues></_>
        <_>
          <internalNodes>
            0 -1 7 -7.7914819121360779e-02</internalNodes>
          <leafValues>
            7.4927079677581787e-01 -8.6011415719985962e-01</leafValues></_>
        <_>
          <internalNodes>
            0 -1 19 7.0527708157896996e-04</internalNodes>
          <leafValues>
            -6.8294680118560791e-01 8.5781866312026978e-01</leafValues></_>
        <_>
          <internalNodes>
            0 -1 10 -2.6553750038146973e-02</internalNodes>
          <leafValues>
            -9.4179695844650269e-01 5.9677356481552124e-01</leafValues></_></weakClassifiers></_>
    <!-- stage 8 -->
    <_>
      <maxWeakCount>1</maxWeakCount>
      <stageThreshold>7.7753061056137085e-01</stageThreshold>
      <weakClassifiers>
        <_>
          <internalNodes>
            0 -1 14 5.3299092542147264e-05</internalNodes>
          <leafValues>
            7.7753061056137085e-01 -9.9335545301437378e-01</leafValues></_></weakClassifiers></_>
    <!-- stage 9 -->
    <_>
      <maxWeakCount>4</maxWeakCount>
      <stageThreshold>-2.2392639517784119e-01</stageThreshold>
      <weakClassifiers>
        <_>
          <internalNodes>
            0 -1 6 5.8095984160900116e-02</internalNodes>
          <leafValues>
            -9.2592591047286987e-01 7.4750828742980957e-01</leafValues></_>
        <_>
          <internalNodes>
            0 -1 18 -1.5355788636952639e-03</internalNodes>
          <leafValues>
            7.2939592599868774e-01 -8.9800214767456055e-01</leafValues></_>
        <_>
          <internalNodes>
            0 -1 20 2.1975249983370304e-03</internalNodes>
          <leafValues>
            -7.6359945535659790e-01 7.7415138483047485e-01</leafValues></_>
        <_>
          <internalNodes>
            0 -1 15 -9.2202294617891312e-03</internalNodes>
          <leafValues>
            8.2585030794143677e-01 -6.8286979198455811e-01</leafValues></_></weakClassifiers></_></stages>
  <features>
    <_>
      <rects>
        <_>
          0 1 14 8 -1.</_>
        <_>
          0 1 7 4 2.</_>
        <_>
          7 5 7 4 2.</_></rects>
      <tilted>0</tilted></_>
    <_>
      <rects>
        <_>
          4 6 6 19 -1.</_>
        <_>
          7 6 3 19 2.</_></rects>
      <tilted>0</tilted></_>
    <_>
      <rects>
        <_>
          4 8 6 15 -1.</_>
        <_>
          7 8 3 15 2.</_></rects>
      <tilted>0</tilted></_>
    <_>
      <rects>
        <_>
          4 15 24 9 -1.</_>
        <_>
          10 15 12 9 2.</_></rects>
      <tilted>0</tilted></_>
    <_>
      <rects>
        <_>
          6 4 18 8 -1.</_>
        <_>
          6 8 18 4 2.</_></rects>
      <tilted>0</tilted></_>
    <_>
      <rects>
        <_>
          7 19 8 2 -1.</_>
        <_>
          7 19 8 1 2.</_></rects>
      <tilted>1</tilted></_>
    <_>
      <rects>
        <_>
          8 6 18 10 -1.</_>
        <_>
          17 6 9 10 2.</_></rects>
      <tilted>0</tilted></_>
    <_>
      <rects>
        <_>
          9 13 18 7 -1.</_>
        <_>
          15 13 6 7 3.</_></rects>
      <tilted>0</tilted></_>
    <_>
      <rects>
        <_>
          10 2 9 7 -1.</_>
        <_>
          13 5 3 7 3.</_></rects>
      <tilted>1</tilted></_>
    <_>
      <rects>
        <_>
          10 17 12 12 -1.</_>
        <_>
          10 21 12 4 3.</_></rects>
      <tilted>0</tilted></_>
    <_>
      <rects>
        <_>
          11 3 11 18 -1.</_>
        <_>
          11 9 11 6 3.</_></rects>
      <tilted>0</tilted></_>
    <_>
      <rects>
        <_>
          11 11 3 12 -1.</_>
        <_>
          11 17 3 6 2.</_></rects>
      <tilted>0</tilted></_>
    <_>
      <rects>
        <_>
          14 1 14 6 -1.</_>
        <_>
          14 1 14 3 2.</_></rects>
      <tilted>1</tilted></_>
    <_>
      <rects>
        <_>
          14 11 12 2 -1.</_>
        <_>
          20 11 6 2 2.</_></rects>
      <tilted>0</tilted></_>
    <_>
      <rects>
        <_>
          14 21 4 3 -1.</_>
        <_>
          15 21 2 3 2.</_></rects>
      <tilted>0</tilted></_>
    <_>
      <rects>
        <_>
          14 22 7 6 -1.</_>
        <_>
          14 24 7 2 3.</_></rects>
      <tilted>0</tilted></_>
    <_>
      <rects>
        <_>
          15 2 13 6 -1.</_>
        <_>
          15 2 13 3 2.</_></rects>
      <tilted>1</tilted></_>
    <_>
      <rects>
        <_>
          16 8 12 10 -1.</_>
        <_>
          19 11 6 10 2.</_></rects>
      <tilted>1</tilted></_>
    <_>
      <rects>
        <_>
          16 20 2 6 -1.</_>
        <_>
          16 20 1 6 2.</_></rects>
      <tilted>1</tilted></_>
    <_>
      <rects>
        <_>
          17 1 3 3 -1.</_>
        <_>
          17 2 3 1 3.</_></rects>
      <tilted>0</tilted></_>
    <_>
      <rects>
        <_>
          17 4 1 6 -1.</_>
        <_>
          17 6 1 2 3.</_></rects>
      <tilted>0</tilted></_>
    <_>
      <rects>
        <_>
          17 21 2 1 -1.</_>
        <_>
          17 21 1 1 2.</_></rects>
      <tilted>1</tilted></_>
    <_>
      <rects>
        <_>
          18 3 5 4 -1.</_>
        <_>
          17 4 5 2 2.</_></rects>
      <tilted>1</tilted></_>
    <_>
      <rects>
        <_>
          19 20 2 2 -1.</_>
        <_>
          19 20 1 2 2.</_></rects>
      <tilted>1</tilted></_>
    <_>
      <rects>
        <_>
          21 2 5 20 -1.</_>
        <_>
          16 7 5 10 2.</_></rects>
      <tilted>1</tilted></_>
    <_>
      <rects>
        <_>
          22 7 6 15 -1.</_>
        <_>
          24 7 2 15 3.</_></rects>
      <tilted>0</tilted></_>
    <_>
      <rects>
        <_>
          23 5 5 20 -1.</_>
        <_>
          18 10 5 10 2.</_></rects>
      <tilted>1</tilted></_></features></cascade>
</opencv_storage>
